tree
version=v4
num_class=1
num_tree_per_iteration=1
label_index=0
max_feature_idx=7
objective=binary sigmoid:1
feature_names=zwfl z_velocity attendance_rate missed_vaccine_streak migrant_flag z_acceleration zwfl_min_3 cumulative_low_visits
feature_infos=[-14.5:142.09999999999999] [-137.19999999999999:138.79999999999998] [0.20000000000000001:1] [0:4] [0:1] [-276:136.59999999999999] [-14.6:20.100000000000001] [0:27]
tree_sizes=1406 1415 1425 1413 1416 1414 1415 1417 1412 1433 1422 1418 1427 1416 1437 1426 1426 1430 1433 1430 1436 1433 1424 1427 1431 1425 1441 1427 1430 1427 1437 1434 1438 1429 1427 1424 1430 1433 1430 1433

Tree=0
num_leaves=12
num_cat=0
split_feature=6 0 6 0 0 6 0 0 1 0 0
split_gain=1.29941e+06 64396.9 58585.5 14036.5 7334.59 5177.46 5668.58 3126.49 2950.82 2073.65 1880.06
threshold=-2.5499999999999994 -2.7499999999999996 -1.4499999999999997 -1.9499999999999997 -0.34999999999999992 -3.4499999999999997 -1.5499999999999998 -3.1499999999999999 0.8000000000000006 -1.1499999999999997 -2.2499999999999996
decision_type=2 2 2 2 2 2 2 2 2 2 2
left_child=1 7 3 10 9 8 -7 -1 -3 -4 -2
right_child=2 5 4 -5 -6 6 -8 -9 -10 -11 -12
leaf_value=-1.9750154570783771 -2.3984708734396389 -2.4309715403407282 -2.8101574002584289 -2.7739625403720019 -3.0159691267480948 -2.3320736723796625 -2.6005147788339085 -2.0788864771735796 -2.1953993472560507 -2.9329450062890388 -2.5729690722685499
leaf_weight=5266.9852479696274 276.52647893130779 174.0992046892643 415.37609504163265 1649.9522253274918 5643.1114447414875 524.20920395851135 314.73432116210461 839.98651197552681 562.20378060638905 1996.7945221811533 349.38930034637451
leaf_count=9512 2738 1832 7382 28181 122492 4525 4332 3185 3384 40174 4625
internal_value=-2.55529 -2.06282 -2.92149 -2.69748 -2.98478 -2.34786 -2.43278 -1.9893 -2.2511 -2.9118 -2.49588
internal_weight=18013.4 7682.22 10331.2 2275.87 8055.28 1575.25 838.944 6106.97 736.303 2412.17 625.916
internal_count=232362 26770 205592 35544 170048 14073 8857 12697 5216 47556 7363
is_linear=0
shrinkage=1


Tree=1
num_leaves=12
num_cat=0
split_feature=0 7 1 0 0 1 7 1 0 1 7
split_gain=164717 22904.4 5225.57 4240.6 3653.2 1838.44 1823.78 1438.93 1392.26 1345.2 722.573
threshold=-1.5499999999999998 1.0000000180025095e-35 1.4500000000000006 1.0000000180025095e-35 -2.1499999999999999 1.8000000000000007 1.5000000000000002 -0.80000000000000038 -0.74999999999999989 0.45000000000000001 1.0000000180025095e-35
decision_type=2 2 2 2 2 2 2 2 2 2 2
left_child=4 3 8 7 10 -5 -4 -2 -3 -6 -1
right_child=1 2 6 5 9 -7 -8 -9 -10 -11 -12
leaf_value=0.36672634331613496 0.2041662070294597 0.26754769135073658 0.25168620821925669 0.069138299338390968 0.28896068222291482 0.18783425336377865 0.38408460923291576 0.13269564093191941 0.17969977220195682 0.38912130372742726 0.39790271227568053
leaf_weight=2108.446370229125 882.27302560955286 759.41221235692501 363.19046260043979 4230.9635314978659 1204.3835819512606 353.4791983962059 916.38632179051638 3490.1247160956264 1110.6473200954497 464.51044511049986 15680.117353051901
leaf_count=4832 13786 8783 3424 84860 12002 5945 4070 59784 17088 1954 15834
internal_value=0.297475 0.152671 0.268648 0.111889 0.387571 0.0782902 0.346505 0.147117 0.215374 0.316839 0.394207
internal_weight=31563.9 12106.5 3149.64 8956.84 19457.5 4584.44 1279.58 4372.4 1870.06 1668.89 17788.6
internal_count=232362 197740 33365 164375 34622 90805 7494 73570 25871 13956 20666
is_linear=0
shrinkage=0.05


Tree=2
num_leaves=12
num_cat=0
split_feature=6 6 6 6 1 1 1 5 5 1 7
split_gain=90424.4 6116.33 3990.44 1614.47 892.384 748.459 620.653 1000.35 562.558 488.153 329.013
threshold=-1.8499999999999999 -1.0499999999999998 -2.9499999999999997 0.15000000000000005 -0.99999999999999956 -0.39999999999999997 -0.19999999999999998 0.099999999999999714 -0.099999999999999881 1.0000000180025095e-35 1.5000000000000002
decision_type=2 2 2 2 2 2 2 2 2 2 2
left_child=2 6 10 4 -3 -5 7 -2 -8 -4 -1
right_child=1 3 9 5 -6 -7 8 -9 -10 -11 -12
leaf_value=0.26944432088532616 0.17102912442493873 0.15299373294419613 0.24151689135697332 0.099089977990418202 0.094098951703812037 0.045779514323035689 0.096146547227042259 0.28236085893532215 0.16162579615207182 0.20726920937810453 0.28383700010187352
leaf_weight=5082.5279707610607 1119.3848037272692 758.68024685233831 3093.0760660916567 873.80430970713496 4225.167129971087 2670.690270986408 424.47567699849606 246.13579285517335 1443.5283546634018 1567.9094055481255 18151.902661420405
leaf_count=6211 12757 10732 13656 15784 70538 50685 6095 2266 18164 11805 13669
internal_value=0.223193 0.10692 0.272219 0.0847181 0.103064 0.0589218 0.165476 0.191097 0.146747 0.229996 0.280689
internal_weight=39657.3 11761.9 27895.4 8528.34 4983.85 3544.49 3233.52 1365.52 1868 4660.99 23234.4
internal_count=232362 187021 45341 147739 81270 66469 39282 15023 24259 25461 19880
is_linear=0
shrinkage=0.05


Tree=3
num_leaves=12
num_cat=0
split_feature=6 6 0 6 5 1 1 0 6 6 1
split_gain=56807 3994.52 3167.49 1159.56 947.987 581.476 556.693 550.253 394.812 393.093 355.194
threshold=-1.8499999999999999 -1.0499999999999998 -2.2499999999999996 0.15000000000000005 1.100000000000001 -0.99999999999999956 -0.39999999999999997 -0.74999999999999989 -2.6499999999999999 -2.8499999999999992 -0.19999999999999998
decision_type=2 2 2 2 2 2 2 2 2 2 2
left_child=2 10 8 5 7 -3 -5 -4 -1 -6 -2
right_child=1 3 4 6 9 -7 -8 -9 -10 -11 -12
leaf_value=0.22386345565490107 0.15355115930956553 0.12669924350398448 0.17309534375689728 0.085942373876748551 0.21489018051552031 0.082056228253494054 0.041695701035125689 0.12060120835784967 0.19359893818645368 0.17473731826135575 0.12238242611090476
leaf_weight=26519.552645251155 1606.7186544574797 867.1141325943172 2183.1727636605501 954.80171471089125 1913.1469891145825 4592.5899361521006 2782.5996976234019 647.19606094062328 1123.2559873834252 894.55023381114006 2120.20810367167
leaf_count=15330 15023 10732 11756 15784 4051 70538 50685 4747 3546 5911 24259
internal_value=0.181119 0.0921526 0.215667 0.0744575 0.181512 0.0891465 0.0529995 0.161092 0.222634 0.202097 0.13582
internal_weight=46204.9 12924 33280.9 9197.11 5638.07 5459.7 3737.4 2830.37 27642.8 2807.7 3726.93
internal_count=232362 187021 45341 147739 26465 81270 66469 16503 18876 9962 39282
is_linear=0
shrinkage=0.05


Tree=4
num_leaves=12
num_cat=0
split_feature=6 6 0 1 1 0 5 0 5 5 6
split_gain=40706.3 2863.45 2713.67 916.903 821.583 672.659 625.867 487.58 454.61 281.601 281.472
threshold=-1.8499999999999999 -0.54999999999999993 -2.5499999999999994 2.4000000000000017 -0.19999999999999998 -1.1499999999999997 1.100000000000001 -0.74999999999999989 0.70000000000000062 5.2500000000000018 -2.7499999999999996
decision_type=2 2 2 2 2 2 2 2 2 2 2
left_child=2 5 -1 4 -3 9 7 -4 -7 -2 -8
right_child=1 3 6 -5 -6 8 10 -9 -10 -11 -12
leaf_value=0.18755943433525313 0.12522099845771092 0.076769305943924962 0.14942904947335653 0.18043567913334654 0.041548145237813687 0.082752505852972683 0.17915834838948899 0.10417459760758074 0.11568464592804639 0.30513709213129375 0.14917231842541337
leaf_weight=29550.901374056935 2077.7598091363907 2751.9855473339558 3681.4673865437508 150.23874444887042 4156.3378088325262 3299.4742010831833 2571.7016442790627 709.98698841780424 1535.6988343000412 21.978827856481075 1124.9183739125729
leaf_count=14902 16962 40361 14979 1860 69318 40722 4668 4747 17710 88 6045
internal_value=0.153466 0.0806552 0.180536 0.0582363 0.0555788 0.103474 0.154874 0.142113 0.0932121 0.127104 0.170033
internal_weight=51632.4 13993.5 37639 7058.56 6908.32 6934.91 8088.07 4391.45 4835.17 2099.74 3696.62
internal_count=232362 187021 45341 111539 109679 75482 30439 19726 58432 17050 10713
is_linear=0
shrinkage=0.05


Tree=5
num_leaves=12
num_cat=0
split_feature=0 7 0 0 7 5 1 5 0 5 0
split_gain=29923.8 5157.88 1169.83 1104.8 882.571 581.728 572.111 363.251 311.222 287.998 253.859
threshold=-1.6499999999999997 1.0000000180025095e-35 -0.34999999999999992 -2.9499999999999997 2.5000000000000004 5.2500000000000018 1.8000000000000007 1.100000000000001 -0.24999999999999997 5.1499999999999995 -2.1499999999999999
decision_type=2 2 2 2 2 2 2 2 2 2 2
left_child=3 2 5 -1 8 -2 -4 10 -3 -6 -5
right_child=1 4 6 7 9 -7 -8 -9 -10 -11 -12
leaf_value=0.16409376320044639 0.08136566279693086 0.11762748409953389 0.048466936794700384 0.14384725159551245 0.13571388327729209 0.24170628747148301 0.10084166306957375 0.16061778304898625 0.088423952905879497 0.17832393533840163 0.12160739370492245
leaf_weight=29196.942748561502 4942.8385952785611 2292.7277736142278 7254.0938087590039 4103.2939130961895 1657.4084598720074 57.223145365715027 561.78658708184958 2210.7998129203916 1515.2363206334412 521.27902815490961 1866.9195893183351
leaf_count=10999 50266 13463 109586 7877 8113 358 6008 3762 12386 601 8943
internal_value=0.133662 0.0822123 0.0643139 0.159543 0.120528 0.0832007 0.0522315 0.143304 0.106007 0.145909 0.136893
internal_weight=56180.5 18802.6 12815.9 37378 5986.65 5000.06 7815.88 8181.01 3807.96 2178.69 5970.21
internal_count=232362 200781 166218 31581 34563 50624 115594 20582 25849 8714 16820
is_linear=0
shrinkage=0.05


Tree=6
num_leaves=12
num_cat=0
split_feature=6 6 0 6 7 1 7 0 0 6 1
split_gain=26713 2665.88 1362.58 607.55 374.141 339.632 332.28 326.579 306.381 285.081 274.231
threshold=-2.2499999999999996 -1.0499999999999998 -2.9499999999999997 0.15000000000000005 3.5000000000000004 -0.59999999999999865 6.5000000000000009 -0.14999999999999999 -1.4499999999999997 -3.0499999999999994 5.2500000000000018
decision_type=2 2 2 2 2 2 2 2 2 2 2
left_child=2 6 -1 4 -3 -5 8 9 -2 -4 -9
right_child=1 3 7 5 -6 -7 -8 10 -10 -11 -12
leaf_value=0.14607081064877031 0.10344313390105996 0.060628057821763087 0.13846650928509829 0.065434411740354553 0.14881368510384715 0.030974425255914581 0.19214074137532333 0.086140017910281974 0.082355389136312379 0.12080545867181597 0.13494549335335757
leaf_weight=31104.807153001428 2832.6924911811948 6557.6960110999644 4092.4282946065068 904.24629303067923 122.52340920269489 3416.8162224516273 81.509961575269699 887.60193936526775 4394.559194214642 5173.4791508242488 425.93461383134127
leaf_count=10999 14513 80167 5907 12318 1103 54151 320 3644 36343 12256 641
internal_value=0.118686 0.0683459 0.140799 0.0527953 0.0622455 0.0381857 0.0917528 0.125298 0.0906206 0.128606 0.101966
internal_weight=59994.3 18310 41684.3 11001.3 6680.22 4321.06 7308.76 10579.4 7227.25 9265.91 1313.54
internal_count=232362 198915 33447 147739 81270 66469 51176 22448 50856 18163 4285
is_linear=0
shrinkage=0.05


Tree=7
num_leaves=12
num_cat=0
split_feature=6 6 6 6 5 5 5 7 1 6 1
split_gain=23084.8 2076.14 1219.15 480.948 329.629 292.952 249.637 247.912 232.229 204.985 163.052
threshold=-2.2499999999999996 -1.0499999999999998 -2.9499999999999997 0.15000000000000005 -15.349999999999996 0.70000000000000062 4.2500000000000018 6.5000000000000009 -0.19999999999999998 -3.8499999999999992 1.0000000180025095e-35
decision_type=2 2 2 2 2 2 2 2 2 2 2
left_child=2 6 9 4 -3 -5 7 -2 -8 -1 -4
right_child=1 3 10 5 -6 -7 8 -9 -10 -11 -12
leaf_value=0.13264498958362478 0.07833051363941386 0.3152889169835249 0.11097878525585381 0.028495866196320288 0.055575998062897203 0.060054754348586328 0.20974039863850727 0.16069080313631318 0.10348362940160011 0.12476810182897831 0.092621094588509048
leaf_weight=26215.963193193078 7386.9461999386549 12.238658361136912 3799.049832932651 3539.1790393553674 7027.9974330514669 928.20515387877822 62.883114024996758 92.514120131731033 282.11109171807766 12058.606123492122 1774.5647944509983
leaf_count=10611 48960 60 7199 53079 81210 13390 124 315 1777 9269 6368
internal_value=0.106914 0.0613961 0.126982 0.0478849 0.0560275 0.035053 0.0812673 0.0793492 0.122851 0.130163 0.105134
internal_weight=63180.3 19332.1 43848.2 11507.6 7040.24 4467.38 7824.45 7479.46 344.994 38274.6 5573.61
internal_count=232362 198915 33447 147739 81270 66469 51176 49275 1901 19880 13567
is_linear=0
shrinkage=0.05


Tree=8
num_leaves=12
num_cat=0
split_feature=0 7 0 0 5 5 5 5 3 0 7
split_gain=19762.4 2782.68 1313.03 783.164 468.98 418.624 381.52 263.068 151.505 145.326 138.98
threshold=-1.6499999999999997 1.5000000000000002 -2.6499999999999999 1.0000000180025095e-35 0.70000000000000062 0.60000000000000087 2.3500000000000019 1.100000000000001 3.5000000000000004 -3.3499999999999992 3.5000000000000004
decision_type=2 2 2 2 2 2 2 2 2 2 2
left_child=2 3 9 5 -5 -2 8 -4 -3 -1 -9
right_child=1 6 7 4 -6 -7 -8 10 -10 -11 -12
leaf_value=0.12247035232835778 0.052970435309692823 0.078863659976507669 0.090855452426712779 0.0297233084936636 0.056391853117573269 0.075350401042628495 0.11185380458516625 0.10401052463345042 0.13327123506343475 0.11510988317093736 0.13321337303744427
leaf_weight=27797.83946801722 7385.5391303747892 2291.8886945918202 4969.6270137876272 5210.7044174000621 2411.4369626156986 2913.9187124967575 1891.5884696990252 1429.7458960264921 135.51816880702972 8838.3405958265066 569.78775165975094
leaf_count=8147 65601 11983 14439 71258 26606 21545 3129 2840 659 5768 387
internal_value=0.0973478 0.0589927 0.11691 0.0503105 0.0381605 0.0593022 0.0950195 0.0970174 0.0819011 0.120695 0.112332
internal_weight=65845.9 22240.6 43605.3 17921.6 7622.14 10299.5 4319 6969.16 2427.41 36636.2 1999.53
internal_count=232362 200781 31581 185010 97864 87146 15771 17666 12642 13915 3227
is_linear=0
shrinkage=0.05


Tree=9
num_leaves=12
num_cat=0
split_feature=6 6 6 2 1 5 5 5 1 5 5
split_gain=18877.6 1568.21 1018.98 542.882 362.237 466.044 247.603 246.978 220.464 255.985 205.718
threshold=-2.3499999999999992 -1.0499999999999998 -3.0499999999999994 0.60500000000000009 -0.79999999999999993 0.70000000000000062 -0.69999999999999996 1.7000000000000011 -0.60000000000000009 -0.19999999999999837 -0.1999999999999999
decision_type=2 2 2 2 2 2 2 2 2 2 2
left_child=2 8 3 -1 6 -6 -3 -5 9 -2 -10
right_child=1 4 -4 7 5 -7 -8 -9 10 -11 -12
leaf_value=0.11220599224846071 0.071967828688717858 0.050880635674171143 0.088999876218022508 0.0682466958048452 0.029104442100662882 0.053056938417251877 0.097575640952543674 0.099680537332677288 0.04700185174298728 0.11409884026434117 0.066910538129855687
leaf_weight=36866.959077015519 2391.9211872071028 1891.5265153869987 6347.522215642035 917.61961194872856 7450.6337948553264 2791.7166535705328 334.02542914450169 1958.8349675238132 1765.8294303566217 424.5278222411871 4893.0599320307374
leaf_count=13849 11584 19034 12363 2540 93785 31816 3104 2393 12044 1419 28431
internal_value=0.0894298 0.0512584 0.107603 0.110574 0.0396058 0.0356331 0.0578889 0.0896528 0.0665912 0.0783183 0.0616311
internal_weight=68034.2 21943.2 46090.9 39743.4 12467.9 10242.4 2225.55 2876.45 9475.34 2816.45 6658.89
internal_count=232362 201217 31145 18782 147739 125601 22138 4933 53478 13003 40475
is_linear=0
shrinkage=0.05


Tree=10
num_leaves=12
num_cat=0
split_feature=6 6 2 7 7 2 6 2 6 4 7
split_gain=17462.6 1801.29 823.895 345.407 337.414 309.171 295.101 270.962 269.19 140.926 139.198
threshold=-2.6499999999999999 -1.0499999999999998 0.60500000000000009 1.5000000000000002 5.5000000000000009 0.65500000000000014 0.15000000000000005 0.52500000000000013 -3.5499999999999994 1.0000000180025095e-35 1.0000000180025095e-35
decision_type=2 2 2 2 2 2 2 2 2 2 2
left_child=2 7 8 9 6 -6 -3 -2 -1 -4 -9
right_child=1 4 3 -5 5 -7 -8 10 -10 -11 -12
leaf_value=0.10594799406119584 0.076813853653955155 0.041755186131992167 0.058021134885122221 0.087788591795799287 0.25966060129833818 0.043671767923821415 0.026143071792867935 0.054291416408927443 0.096689756235311022 -0.017492200786602182 0.066706341196892782
leaf_weight=30325.821392536163 2791.7935703396797 7919.7588391751051 866.46439862251282 2784.3019775152206 32.2975163012743 34.020129226148129 4899.251250397414 5831.004859149456 10594.094669699669 66.529313623905182 3684.4365652799606
leaf_count=9804 7727 80951 2464 4417 142 285 66361 35421 8030 288 16472
internal_value=0.0827195 0.0494369 0.101504 0.0789659 0.0363704 0.148861 0.0357884 0.0631171 0.103551 0.0526365 0.0590986
internal_weight=69829.8 25192.6 44637.2 3717.3 12885.3 66.3176 12819 12307.2 40919.9 932.994 9515.44
internal_count=232362 207359 25003 7169 147739 427 147312 59620 17834 2752 51893
is_linear=0
shrinkage=0.05


Tree=11
num_leaves=12
num_cat=0
split_feature=6 6 2 6 6 7 7 2 1 4 1
split_gain=16421.7 1524.87 828.289 297.176 296.689 296.204 239.703 220.051 204.65 121.84 116.039
threshold=-2.6499999999999999 -1.1499999999999997 0.60500000000000009 -3.0499999999999994 0.45000000000000007 1.5000000000000002 2.5000000000000004 0.52500000000000013 2.4000000000000017 1.0000000180025095e-35 4.0500000000000016
decision_type=2 2 2 2 2 2 2 2 2 2 2
left_child=2 7 3 -1 6 9 -3 -2 -6 -4 -7
right_child=1 4 5 -5 8 10 -8 -9 -10 -11 -12
leaf_value=0.098524551192068571 0.070627542626878925 0.037408439356944358 0.053659705939987493 0.083318592182513584 0.021087517686896248 0.07455151839096566 0.079597814075219681 0.054705798217625168 0.090639683540449364 -0.01675845239706019 0.096776899381362858
leaf_weight=37875.043868675828 2852.0244331657887 9678.2770326882601 889.42265859246254 3510.970873683691 4001.9148252084851 2042.1953843533993 348.80664123594761 9076.308986261487 108.63339385390282 65.984311982989311 824.33632546663284
leaf_count=13849 7418 97020 2464 3985 53652 3743 2444 45892 933 288 674
internal_value=0.0769539 0.0453468 0.0951779 0.0972346 0.0342384 0.0729069 0.0388761 0.0585126 0.0229256 0.0487963 0.0809429
internal_weight=71273.9 26066 45208 41386 14137.6 3821.94 10027.1 11928.3 4110.55 955.407 2866.53
internal_count=232362 207359 25003 17834 154049 7169 99464 53310 54585 2752 4417
is_linear=0
shrinkage=0.05


Tree=12
num_leaves=12
num_cat=0
split_feature=6 0 0 5 6 0 1 0 1 3 5
split_gain=15579.6 1380.61 1212.16 417.739 338.583 265.163 234.366 145.471 136.428 120.009 131.552
threshold=-2.6499999999999999 -1.2499999999999998 -2.9499999999999997 3.200000000000002 0.15000000000000005 -0.24999999999999997 5.450000000000002 -0.14999999999999999 -1.4499999999999995 1.0000000180025095e-35 0.099999999999999548
decision_type=2 2 2 2 2 2 2 2 2 2 2
left_child=2 9 8 4 -3 -4 -7 -5 -1 -2 -11
right_child=1 3 5 7 -6 6 -8 -9 -10 10 -12
leaf_value=0.088366804075161134 0.047315074865929264 0.03673938495468395 0.07791965866154367 0.085936397973981116 0.021316619078853471 0.041857406894775129 0.083019716072081695 0.050421835819602238 0.095776420352502278 0.057511501149055823 0.073004040501808656
leaf_weight=8031.6697978973389 1606.6181836947799 12787.775318041444 8520.7975027412176 411.85770142823458 4930.7584576755762 1043.2828090786934 517.25877456367016 961.4402732104063 27423.87814591825 4127.5342078059912 2051.1413773372769
leaf_count=3491 6148 106993 10633 2066 64397 2827 544 7013 7508 14291 6451
internal_value=0.0719305 0.041743 0.089748 0.0345066 0.0324475 0.0744494 0.0555011 0.0610728 0.0940979 0.059489 0.0626546
internal_weight=72414 26877.1 45536.9 19091.8 17718.5 10081.3 1560.54 1373.3 35455.5 7785.29 6178.68
internal_count=232362 207359 25003 180469 171390 14004 3371 9079 10999 26890 20742
is_linear=0
shrinkage=0.05


Tree=13
num_leaves=12
num_cat=0
split_feature=6 6 1 5 6 1 5 6 6 1 7
split_gain=14901.5 1352.58 433.76 460.018 403.099 188.791 177.669 166.663 124.812 140.191 114.241
threshold=-2.7499999999999996 -1.4499999999999997 -0.79999999999999993 0.60000000000000087 -3.6499999999999999 0.4000000000000003 -1.5999999999999988 10.65 -2.2499999999999996 1.0000000180025095e-35 7.5000000000000009
decision_type=2 2 2 2 2 2 2 2 2 2 2
left_child=4 8 7 -4 -1 6 -6 -3 9 -2 -10
right_child=1 2 3 -5 5 -7 -8 -9 10 -11 -12
leaf_value=0.088654033211581204 0.065527138244854316 0.046526201098193651 0.020795837340771187 0.040116706763584156 0.069876106935949978 0.064835200554912459 0.084790014611379222 0.30329466004804678 0.047914221214457077 0.047246292890716884 0.11227463521262118
leaf_weight=31858.654412433505 3055.9814210832119 3329.5071104988456 9636.3187506645918 4528.6050846502185 2697.814856082201 2214.5245339870453 7686.8153409808874 6.3317279294133177 6606.8252105638385 1596.6762302070856 69.675791040062904
leaf_count=12262 5602 26323 101885 41802 2819 3744 4046 38 28722 4974 145
internal_value=0.0675041 0.0395065 0.0307928 0.0269728 0.08566 0.0780891 0.0809155 0.0470136 0.0529669 0.0592536 0.0485859
internal_weight=73287.7 28829.9 17500.8 14164.9 44457.8 12599.2 10384.6 3335.84 11329.2 4652.66 6676.5
internal_count=232362 209491 170048 143687 22871 10609 6865 26361 39443 10576 28867
is_linear=0
shrinkage=0.05


Tree=14
num_leaves=12
num_cat=0
split_feature=0 7 0 0 5 1 7 5 0 1 1
split_gain=14462.6 1585.56 665.527 473.94 443.522 221.909 206.659 159.311 149.287 125.907 89.0355
threshold=-2.2499999999999996 1.0000000180025095e-35 -2.9499999999999997 -0.94999999999999984 0.90000000000000002 -0.79999999999999993 2.5000000000000004 0.60000000000000087 -0.74999999999999989 -1.4499999999999995 0.9499999999999994
decision_type=2 2 2 2 2 2 2 2 2 2 2
left_child=2 3 9 7 8 -5 -6 -2 -3 -1 -4
right_child=1 4 10 5 6 -7 -8 -9 -10 -11 -12
leaf_value=0.080085915528154181 0.037910087715838314 0.049658538967314467 0.066267105967972084 0.03893416519851365 0.054333931883441447 0.022363771112644176 0.073512351083923441 0.058899681524830619 0.033752730723475066 0.087222128745252203 0.083617626177677956
leaf_weight=7995.5696751624346 4133.3191123902798 3760.0050006732345 5887.3915246725082 2414.0696004256606 3202.4727184399962 12391.702334105968 2502.1279896199703 1157.0898490101099 2427.6788647696376 27234.534322947264 845.59618353843689
leaf_count=3491 20019 12214 7412 20503 9433 127334 3685 4975 15323 7508 465
internal_value=0.0635442 0.0382187 0.0828498 0.0296555 0.0526894 0.0250656 0.0627459 0.0425008 0.043418 0.0856025 0.0684462
internal_weight=73951.6 31988.5 41963.1 20096.2 11892.3 14805.8 5704.6 5290.41 6187.68 35230.1 6732.99
internal_count=232362 213486 18876 172831 40655 147837 13118 24994 27537 10999 7877
is_linear=0
shrinkage=0.05


Tree=15
num_leaves=12
num_cat=0
split_feature=0 6 0 6 1 5 2 5 1 5 6
split_gain=13961.3 1380.61 706.844 386.657 319.569 371.899 185.388 130.969 120.45 116.978 94.0704
threshold=-2.2499999999999996 -1.4499999999999997 -2.9499999999999997 -3.4499999999999997 -0.79999999999999993 0.70000000000000062 0.50500000000000012 -0.1999999999999999 -1.4499999999999995 -2.299999999999998 -2.6499999999999999
decision_type=2 2 2 2 2 2 2 2 2 2 2
left_child=2 3 8 9 6 -6 -3 -5 -1 -2 -4
right_child=1 4 10 7 5 -7 -8 -9 -10 -11 -12
leaf_value=0.076634931542999996 0.041021504858717917 0.13980532858446215 0.068348363422311945 0.035694691661940059 0.018050604895893569 0.035407128250670029 0.038593520762978971 0.046942854951338216 0.083641147431564741 0.065551676726085598 0.05560589713701234
leaf_weight=7939.2051323205233 581.7720700353384 45.834131747484207 4700.8242070823908 4302.6631301119924 10389.343084529042 4390.6063218265772 3512.4973814338446 6493.460922062397 26986.548112869263 2952.4654498249292 2093.3969501405954
leaf_count=3491 1425 238 4331 16861 105685 38002 26123 22021 7508 3131 3546
internal_value=0.0600102 0.0355316 0.079178 0.0471592 0.0264452 0.0232066 0.0398972 0.04246 0.0820485 0.0615138 0.0644222
internal_weight=74388.6 32668.6 41720 14330.4 18338.3 14779.9 3558.33 10796.1 34925.8 3534.24 6794.22
internal_count=232362 213486 18876 43438 170048 143687 26361 38882 10999 4556 7877
is_linear=0
shrinkage=0.05


Tree=16
num_leaves=12
num_cat=0
split_feature=0 7 0 6 7 1 0 6 1 6 6
split_gain=13516.8 1312.08 745.667 393.612 326.106 245.871 213.059 191.724 116.73 97.1926 93.3806
threshold=-2.2499999999999996 1.0000000180025095e-35 -2.9499999999999997 -0.34999999999999992 5.5000000000000009 2.4000000000000017 6.0500000000000007 -3.0499999999999994 -1.4499999999999995 -0.74999999999999989 -2.6499999999999999
decision_type=2 2 2 2 2 2 2 2 2 2 2
left_child=2 3 8 6 7 -5 -2 -3 -1 -6 -4
right_child=1 4 10 5 9 -7 -8 -9 -10 -11 -12
leaf_value=0.073532941740552069 0.030639233771535136 0.052378675707845282 0.064732479553287203 0.015477750572217281 0.066603069693024097 0.069688832620916574 0.16258335592374798 0.038494867899978996 0.080465792064703043 0.12865707684552397 0.052101431230542408
leaf_weight=7862.322066783905 12787.124224074185 3786.3189637064934 4714.8200734704733 7943.0438634380698 1227.4550122842193 214.81288583576679 30.669097401201725 7243.5966338962317 26657.103898271918 66.520271256566048 2121.7258184850216
leaf_count=3491 81479 5877 4331 89742 1864 1495 115 32611 7508 303 3546
internal_value=0.056808 0.0330983 0.0758989 0.0254907 0.0460467 0.0169052 0.0309549 0.0432609 0.0788867 0.0697931 0.0608124
internal_weight=74655.5 33299.5 41356 20975.7 12323.9 8157.86 12817.8 11029.9 34519.4 1293.98 6836.55
internal_count=232362 213486 18876 172831 40655 91237 81594 38488 10999 2167 7877
is_linear=0
shrinkage=0.05


Tree=17
num_leaves=12
num_cat=0
split_feature=6 6 6 7 1 1 5 5 1 7 5
split_gain=12990.2 842.388 467.061 299.546 287.97 200.6 168.916 158.299 146.111 155.173 126.607
threshold=-2.7499999999999996 -1.4499999999999997 -3.6499999999999999 1.0000000180025095e-35 -0.79999999999999993 0.4000000000000003 -1.0999999999999988 -3.0499999999999985 1.6000000000000005 1.5000000000000002 -2.299999999999998
decision_type=2 2 2 2 2 2 2 2 2 2 2
left_child=2 -2 8 4 -3 6 -4 -5 10 -10 -1
right_child=1 3 5 7 -6 -7 -8 -9 9 -11 -12
leaf_value=0.069289529380448273 0.039588638982685879 0.033535979444127527 0.057129053985249534 0.089918097695091681 0.017100954590342478 0.050230728265936553 0.070908779938270744 0.035897198179854879 0.037948912227088918 0.069373765073456981 0.077862155994909032
leaf_weight=5361.9593464434147 12321.847754955292 3334.6668873801827 3269.7016365379095 143.97691615670919 13278.077764816582 2325.0833328962326 6953.7584911435843 2333.8065674006939 449.45129252970219 3118.4346666783094 21889.349087670445
leaf_count=3161 39443 24115 3287 707 129191 3744 3578 16035 693 2024 6384
internal_value=0.0538829 0.0293969 0.0716187 0.0228188 0.0203999 0.0634869 0.0665017 0.0390362 0.0749297 0.0654151 0.0761754
internal_weight=74780.1 31412.4 43367.7 19090.5 16612.7 12548.5 10223.5 2477.78 30819.2 3567.89 27251.3
internal_count=232362 209491 22871 170048 153306 10609 6865 16742 12262 2717 9545
is_linear=0
shrinkage=0.05


Tree=18
num_leaves=12
num_cat=0
split_feature=0 6 0 6 0 6 1 3 1 1 5
split_gain=12911.4 1356.15 378.626 327.963 252.171 243.718 225.198 165.706 96.9777 79.323 73.6202
threshold=-2.5499999999999994 -1.6499999999999997 -3.0499999999999994 -4.3499999999999988 -1.4499999999999997 -0.34999999999999992 -0.10000000000000005 1.0000000180025095e-35 -1.4499999999999995 -1.5499999999999994 -3.9499999999999984
decision_type=2 2 2 2 2 2 2 2 2 2 2
left_child=2 3 8 10 -5 7 -7 -3 -1 -4 -2
right_child=1 5 9 4 -6 6 -8 -9 -10 -11 -12
leaf_value=0.068863005103422636 0.03384931095249296 0.018070746765824815 0.046451521830035661 0.044073392169393898 0.030206267447170556 0.024931241790528948 0.0091639315497677211 0.030667138847762981 0.075348501746148017 0.062264231596171782 0.063286304332182061
leaf_weight=7496.8516625910997 240.05861428380013 3791.1665287315845 979.09862144291401 8312.1162500083447 5413.6011768132448 3985.8710973709822 5243.9775918349624 8386.2915421277285 24937.15759858489 4174.8228766024113 1843.3274295628071
leaf_count=3311 536 27583 1181 18617 17520 39576 58508 53497 7082 3328 1623
internal_value=0.0511792 0.0303031 0.071849 0.0414098 0.038604 0.0221009 0.015973 0.0267455 0.0738494 0.0592603 0.0598944
internal_weight=74804.3 37216.4 37587.9 15809.1 13725.7 21407.3 9229.85 12177.5 32434 5153.92 2083.39
internal_count=232362 217460 14902 38296 36137 179164 98084 81080 10393 4509 2159
is_linear=0
shrinkage=0.05


Tree=19
num_leaves=12
num_cat=0
split_feature=0 6 0 6 7 0 6 2 7 7 1
split_gain=12593.4 1229.47 396.636 312.37 236.46 218.25 199.954 199.47 176.619 101.895 74.0957
threshold=-2.5499999999999994 -1.6499999999999997 -3.0499999999999994 -3.6499999999999999 1.0000000180025095e-35 -1.4499999999999997 0.8500000000000002 0.69500000000000006 1.5000000000000002 1.0000000180025095e-35 -1.5499999999999994
decision_type=2 2 2 2 2 2 2 2 2 2 2
left_child=2 3 9 8 6 -5 -3 -6 -2 -1 -4
right_child=1 4 10 5 7 -7 -8 -9 -10 -11 -12
leaf_value=0.063001201008897514 0.02918501718742128 0.020949753702235327 0.044168155773621633 0.040291492402298075 0.048752559595082734 0.026593515972374079 0.0074432435338396552 0.022830318092073504 0.057491047803241539 0.072466208805639074 0.059463838793978152
leaf_weight=3156.5226314812899 682.92958331108093 15358.822430260479 978.2472986727953 7804.6483670771122 1263.7493341192603 4634.7547352910042 3335.2546851858497 1797.907862059772 2854.5249903947115 28671.397766321898 4153.388328820467
leaf_count=1691 1322 121595 1181 17985 7340 16192 38889 11340 2797 8702 3328
internal_value=0.0487034 0.028384 0.0694477 0.0389161 0.0206496 0.0351878 0.01854 0.0335301 0.0520264 0.0715275 0.056548
internal_weight=74692.1 37732.6 36959.6 15976.9 21755.7 12439.4 18694.1 3061.66 3537.45 31827.9 5131.64
internal_count=232362 217460 14902 38296 179164 34177 160484 18680 4119 10393 4509
is_linear=0
shrinkage=0.05


Tree=20
num_leaves=12
num_cat=0
split_feature=0 6 0 6 5 1 0 0 7 7 0
split_gain=12282.9 1118.2 414.378 301.142 205.217 413.327 203.459 173.087 102.095 88.7336 70.4109
threshold=-2.5499999999999994 -1.6499999999999997 -3.0499999999999994 -4.3499999999999988 0.70000000000000062 -0.10000000000000005 -1.4499999999999997 -0.94999999999999984 1.0000000180025095e-35 4.5000000000000009 -6.7499999999999991
decision_type=2 2 2 2 2 2 2 2 2 2 2
left_child=2 3 8 9 5 -3 -5 -6 10 -2 -1
right_child=1 4 -4 6 7 -7 -8 -9 -10 -11 -12
leaf_value=-0.0033736588812689084 0.046654970201884582 0.023526180767923448 0.054037080032353316 0.038862763512525676 0.050090111429361012 0.0075751157209424927 0.026546528766345969 0.0241506390002789 0.070360001251122448 0.068181163237426873 0.061691746435334573
leaf_weight=42.151189059019089 1330.8048070818186 9226.4702259004116 5102.3412282168865 8504.7807343155146 741.10774894058704 7254.3396185860038 5535.8651821017265 4863.2299507558346 28068.472255915403 747.70830218493938 3065.8679095059633
leaf_count=74 1689 68990 4509 18617 3054 68616 17520 38504 8702 470 1617
internal_value=0.0464097 0.0266235 0.0672461 0.0366363 0.0193156 0.016505 0.0340068 0.0275808 0.0694079 0.0543986 0.0608093
internal_weight=74483.1 38204.3 36278.8 16119.2 22085.1 16480.8 14040.6 5604.34 31176.5 2078.51 3108.02
internal_count=232362 217460 14902 38296 179164 137606 36137 41558 10393 2159 1691
is_linear=0
shrinkage=0.05


Tree=21
num_leaves=12
num_cat=0
split_feature=6 2 6 6 5 2 1 1 1 6 5
split_gain=11625 885.713 542.722 350.575 218.796 207.616 164.703 171.197 95.7409 88.9369 76.4178
threshold=-2.7499999999999996 0.60500000000000009 -1.0499999999999998 -3.3499999999999992 1.0000000000000009 0.52500000000000013 2.4000000000000017 -0.099999999999999908 2.3500000000000001 -0.74999999999999989 8.3266726846886753e-17
decision_type=2 2 2 2 2 2 2 2 2 2 2
left_child=1 3 5 -1 -3 8 7 -4 -2 -8 -7
right_child=2 4 6 -5 -6 10 9 -9 -10 -11 -12
leaf_value=0.066900291941808396 0.03880626829626721 0.023316502053580504 0.020339751846112475 0.054330806051679059 0.048101178437414099 0.021480732190935353 -0.013841963210220644 0.0099453366471422694 -0.066126470379979083 0.056787415133932442 0.02917491289020804
leaf_weight=30042.632883027196 4166.7312654703856 1338.8683955967426 7754.3537639603019 6803.6363864094019 2658.7106609046459 6256.7854506522417 51.181342720985413 8098.2288692817092 21.851789131760597 345.08784785866737 6664.3883602619171
leaf_count=11205 8557 3093 65357 5292 3281 26541 387 79871 124 2124 26530
internal_value=0.0442687 0.0621541 0.02237 0.0645793 0.0398003 0.0285851 0.0158257 0.0150298 0.0382588 0.0476651 0.0254492
internal_weight=74202.5 40843.8 33358.6 36846.3 3997.58 17109.8 16248.9 15852.6 4188.58 396.269 12921.2
internal_count=232362 22871 209491 16497 6374 61752 147739 145228 8681 2511 53071
is_linear=0
shrinkage=0.05


Tree=22
num_leaves=12
num_cat=0
split_feature=0 6 0 6 6 7 7 0 7 0 7
split_gain=11779.4 1016.57 328.488 287.06 182.706 161.218 141.02 136.398 87.0505 85.2413 83.5539
threshold=-2.6499999999999999 -2.2499999999999996 -3.3499999999999992 -0.54999999999999993 -4.3499999999999988 5.5000000000000009 2.5000000000000004 -1.5499999999999998 1.5000000000000002 -2.9499999999999997 1.0000000180025095e-35
decision_type=2 2 2 2 2 2 2 2 2 2 2
left_child=2 4 10 6 8 -5 -3 -6 -2 -4 -1
right_child=1 3 9 5 7 -7 -8 -9 -10 -11 -12
leaf_value=0.05744412308703261 0.027556219280177343 0.021656032631261715 0.059305303845528227 0.012249998736146545 0.038510929152847678 0.096047200969355151 0.039527507072916586 0.026082101581609431 0.054386827208793703 0.049113507630853391 0.067663609317220624
leaf_weight=2190.5842601358891 365.3288230150938 15911.34489775449 5599.1895201355219 11412.914467521012 5433.4344484061003 57.687679931521416 1186.1065828576684 3717.8819358795881 1752.4770924001932 3238.0116424411535 22999.542964532971
leaf_count=1180 665 83194 2852 111309 8412 230 4182 8923 1532 2916 6967
internal_value=0.0422607 0.023807 0.0638651 0.0187905 0.0365242 0.0126714 0.0228958 0.0334615 0.0497585 0.055571 0.0667749
internal_weight=73864.5 39837.2 34027.3 28568.1 11269.1 11470.6 17097.5 9151.32 2117.81 8837.2 25190.1
internal_count=232362 218447 13915 198915 19532 111539 87376 17335 2197 5768 8147
is_linear=0
shrinkage=0.05


Tree=23
num_leaves=12
num_cat=0
split_feature=0 6 0 6 1 6 0 0 1 1 7
split_gain=11487.3 937.809 341.173 252.905 174.512 172.906 159.498 125.049 113.378 83.4185 81.4175
threshold=-2.6499999999999999 -2.2499999999999996 -3.0499999999999994 -0.34999999999999992 -0.59999999999999865 -4.3499999999999988 5.6500000000000012 -1.5499999999999998 -1.4499999999999995 -2.0499999999999994 1.5000000000000002
decision_type=2 2 2 2 2 2 2 2 2 2 2
left_child=2 5 8 6 -5 10 -3 -7 -1 -4 -2
right_child=1 3 9 4 -6 7 -8 -9 -10 -11 -12
leaf_value=0.058400292228548201 0.026116164854008913 0.02074792679424076 0.031393115696805488 0.023401876764830687 0.0075082595946644294 0.036495301885934854 0.10739742772888466 0.024622205830194793 0.065776898771740991 0.051649067441796682 0.052055699642392129
leaf_weight=6800.1512147635221 366.17659877240658 19023.536075234413 591.94455350935459 2234.9088424220681 7601.1977071687579 5446.4848313033581 53.257010407745838 3740.7951120883226 22261.973079442978 3595.8491527289152 1739.7305286973715
leaf_count=3311 665 100662 735 18455 79629 8412 169 8923 7082 2787 1532
internal_value=0.0403855 0.0224044 0.0621283 0.017632 0.0111195 0.034623 0.0209898 0.0316609 0.0640509 0.0487859 0.0475453
internal_weight=73456 40206.1 33249.9 28912.9 9836.11 11293.2 19076.8 9187.28 29062.1 4187.79 2105.91
internal_count=232362 218447 13915 198915 98084 19532 100831 17335 10393 3522 2197
is_linear=0
shrinkage=0.05


Tree=24
num_leaves=12
num_cat=0
split_feature=0 6 0 0 5 2 0 6 1 2 1
split_gain=11209.2 1002.87 240.307 232.25 210.681 195.773 171.486 113.794 88.2699 82.6021 70.4804
threshold=-2.7499999999999996 -2.2499999999999996 -3.3499999999999992 -1.1499999999999997 1.100000000000001 0.88500000000000012 -0.74999999999999989 -3.0499999999999994 -1.4499999999999995 0.22500000000000003 -1.4499999999999995
decision_type=2 2 2 2 2 2 2 2 2 2 2
left_child=2 4 8 9 6 -5 -2 -6 -1 -3 -4
right_child=1 3 10 5 7 -7 -8 -9 -10 -11 -12
leaf_value=0.058165026488039985 0.030975794962373567 0.074524386454832905 0.044095078954835887 0.011404917625249337 0.045805669350397982 0.022507988793034932 0.0089982358842195156 0.030996325615790295 0.065319140732561717 0.023799671874917501 0.055903371059217513
leaf_weight=5643.758017167449 5645.5190829634666 81.177412688732147 1611.6234593242407 16876.109519250691 3692.5207137465477 5191.4464291855693 1053.1603905856609 1999.5649858266115 18266.713916987181 7091.1963481009007 5853.0136912167072
leaf_count=2620 9546 113 1332 134096 3836 40044 3233 4135 5527 24662 3218
internal_value=0.0386176 0.0216092 0.0611855 0.0165574 0.0335305 0.0140169 0.0275205 0.0406033 0.0636305 0.0243738 0.0533539
internal_weight=73005.8 41630.7 31375.1 29239.9 12390.8 22067.6 6698.68 5692.09 23910.5 7172.37 7464.64
internal_count=232362 219665 12697 198915 20750 174140 12779 7971 8147 24775 4550
is_linear=0
shrinkage=0.05


Tree=25
num_leaves=12
num_cat=0
split_feature=0 6 0 6 5 1 0 7 7 1 1
split_gain=10929.9 926.456 246.665 214.529 194.195 184.229 155.404 146.74 125.639 89.8634 68.794
threshold=-2.7499999999999996 -2.2499999999999996 -3.3499999999999992 -0.6499999999999998 1.100000000000001 2.4000000000000017 -1.5499999999999998 3.5000000000000004 2.5000000000000004 -1.7999999999999992 -1.5499999999999994
decision_type=2 2 2 2 2 2 2 2 2 2 2
left_child=2 4 9 8 6 -5 -2 -6 -3 -1 -4
right_child=1 3 10 5 7 -7 -8 -9 -10 -11 -12
leaf_value=0.056261924831102365 0.030936140963326222 0.018072029805093814 0.04219137493116068 0.0096654206863593609 0.033176697042328999 0.046836946106241548 0.014142349582854853 0.050444487533244202 0.034867495511660899 0.063830852611509045 0.054156967416878511
leaf_weight=4994.179397970438 4775.8346771448851 15616.303443014622 1514.2994074672461 12387.073256745934 3878.7885851860046 342.55001343041658 1935.9479053914547 1801.8376143723726 1198.9665188863873 18258.053600892425 5810.0060790032148
leaf_count=2414 7483 76946 1277 115990 6277 1973 5296 1694 4006 5733 3273
internal_value=0.0369509 0.0203756 0.0596847 0.0155625 0.0318504 0.0106657 0.0260921 0.0386539 0.0192696 0.0622052 0.0516831
internal_weight=72513.8 41937.3 30576.5 29544.9 12392.4 12729.6 6711.78 5680.63 16815.3 23252.2 7324.31
internal_count=232362 219665 12697 198915 20750 117963 12779 7971 80952 8147 4550
is_linear=0
shrinkage=0.05


Tree=26
num_leaves=12
num_cat=0
split_feature=0 7 1 5 0 5 5 7 0 7 0
split_gain=10648 774.456 322.593 306.197 253.155 228.128 179.156 173.794 134.343 92.6081 75.8708
threshold=-2.7499999999999996 1.0000000180025095e-35 -0.79999999999999993 0.90000000000000002 -3.3499999999999992 0.60000000000000087 -0.099999999999999881 2.5000000000000004 -0.74999999999999989 1.0000000180025095e-35 -6.7499999999999991
decision_type=2 2 2 2 2 2 2 2 2 2 2
left_child=4 2 6 8 9 -4 -2 -5 -3 10 -1
right_child=1 3 5 7 -6 -7 -8 -9 -10 -11 -12
leaf_value=-0.019226637280080089 0.020436620617124646 0.025555406309971058 0.006350099924580581 0.028755129812216375 0.050093718830581349 0.017910380186596242 0.047424438788578022 0.044366248256003896 0.012702150890621071 0.061869856514630707 0.051972197838408979
leaf_weight=38.141627267003059 5814.6156720593572 6603.9411785900593 12267.234313376248 4339.0820601731539 7182.5382205992937 6544.2013174891472 687.67096901684999 3026.2175910398364 2937.1199666410685 20583.428268566728 1969.4509371519089
leaf_count=74 28319 15341 100187 10282 4550 43863 2335 4015 15323 6967 1106
internal_value=0.0353722 0.0192244 0.0136902 0.0275108 0.0582704 0.0103717 0.0232908 0.0351693 0.0215987 0.0608701 0.0506195
internal_weight=71993.6 42220.1 25313.7 16906.4 29773.6 18811.4 6502.29 7365.3 9541.06 22591 2007.59
internal_count=232362 219665 174704 44961 12697 144050 30654 14297 30664 8147 1180
is_linear=0
shrinkage=0.05


Tree=27
num_leaves=12
num_cat=0
split_feature=0 0 7 0 1 5 5 1 1 1 7
split_gain=10365.5 735.378 510.813 260.035 207.504 196.395 158.471 95.1926 70.2887 66.8509 60.318
threshold=-2.7499999999999996 -1.6499999999999997 1.5000000000000002 -3.3499999999999992 0.89999999999999991 2.3500000000000019 0.60000000000000087 -1.4499999999999995 -1.4499999999999995 -6.3499999999999988 3.5000000000000004
decision_type=2 2 2 2 2 2 2 2 2 2 2
left_child=3 4 6 7 9 -4 -3 -1 -5 -2 -6
right_child=1 2 5 8 10 -7 -8 -9 -10 -11 -12
leaf_value=0.053731414896731278 -0.048353434826052408 0.0088251694967204138 0.020568925866186777 0.039129645606130664 0.038206702472248867 0.039417227349334671 0.017164557863735483 0.061459199279472548 0.051214081831485792 0.027206904499561264 0.059015835863848266
leaf_weight=5234.4168842881918 29.369580492377281 18026.179924316704 3603.073928065598 1540.2196029722691 768.70270024240017 2242.05617762357 8328.7683250159025 16695.908339709044 5500.7934986799955 8854.4113860577345 636.66405400633812
leaf_count=2620 104 134690 12642 1332 816 3129 50320 5527 3218 17595 369
internal_value=0.0338692 0.0181447 0.0144264 0.0569306 0.0297813 0.0277987 0.0114606 0.0596147 0.0485706 0.0269571 0.0476337
internal_weight=71460.6 42489.2 32200.1 28971.3 10289.1 5845.13 26354.9 21930.3 7041.01 8883.78 1405.37
internal_count=232362 219665 200781 12697 18884 15771 185010 8147 4550 17699 1185
is_linear=0
shrinkage=0.05


Tree=28
num_leaves=12
num_cat=0
split_feature=0 0 7 0 5 5 2 7 0 1 1
split_gain=10074.4 673.923 478.408 266.583 241.158 160.793 135.442 105.046 98.1406 97.1433 68.6561
threshold=-2.7499999999999996 -1.4499999999999997 1.5000000000000002 -3.3499999999999992 0.90000000000000002 2.3500000000000019 0.88500000000000012 3.5000000000000004 -2.1499999999999999 -1.4499999999999995 -1.4499999999999995
decision_type=2 2 2 2 2 2 2 2 2 2 2
left_child=3 4 6 9 8 -4 -3 -6 -2 -1 -5
right_child=1 2 5 10 7 -7 -8 -9 -10 -11 -12
leaf_value=0.052413200048670894 0.028196194645225211 0.0082013620545632274 0.019690119778868573 0.037728025243609561 0.033185600942320315 0.037517317003098898 0.016852700254941184 0.05344863942098857 0.017605812447356171 0.060326825328921765 0.049767924505365137
leaf_weight=5101.1667250692844 4072.1121856570244 19130.125446803868 3162.4161213412881 1518.1374250203371 2763.655421808362 2107.9726007953286 5925.2874737456441 832.19868265092373 4726.9786931872368 16172.150550588965 5380.6806875318289
leaf_count=2620 6282 138512 11528 1332 4731 2973 41353 624 13662 5527 3218
internal_value=0.0324487 0.0171424 0.0131276 0.0556594 0.0269653 0.0268204 0.0102473 0.0378751 0.0225069 0.0584292 0.0471185
internal_weight=70892.9 42720.7 30325.8 28172.1 12394.9 5270.39 25055.4 3595.85 8799.09 21273.3 6898.82
internal_count=232362 219665 194366 12697 25299 14501 179865 5355 19944 8147 4550
is_linear=0
shrinkage=0.05


Tree=29
num_leaves=12
num_cat=0
split_feature=0 6 0 0 0 5 2 7 7 5 0
split_gain=9779.67 684.93 273.082 179.69 153.379 158.184 148.367 104.023 100.238 83.885 74.8495
threshold=-2.7499999999999996 -2.3499999999999992 -3.3499999999999992 -1.1499999999999997 -0.14999999999999999 1.3000000000000012 0.88500000000000012 1.5000000000000002 1.0000000180025095e-35 -2.8499999999999996 -6.7499999999999991
decision_type=2 2 2 2 2 2 2 2 2 2 2
left_child=2 4 8 9 5 -2 -5 -6 10 -3 -1
right_child=1 3 -4 6 7 -7 -8 -9 -10 -11 -12
leaf_value=-0.0243725946451257 0.023945514678816927 0.033711762126435778 0.045723990762056493 0.0079524649723065246 -0.0030811489248418595 0.037062833423409172 0.017318269456556699 0.022130319632126867 0.058405901010379603 0.017061207339928178 0.047679221852556797
leaf_weight=36.768107861280441 5642.3443723767996 842.20994362235069 6757.4427576810122 17785.420823611319 625.83567340672016 3877.9535415023565 5547.4292611554265 1181.630891263485 18754.23947224021 7426.5533666461706 1831.5280015319586
leaf_count=74 9703 2353 4550 134676 1880 4819 40214 2046 6967 23974 1106
internal_value=0.0310973 0.0162049 0.0544473 0.0124237 0.0267536 0.0292887 0.0101792 0.0134008 0.0573057 0.0187571 0.0462612
internal_weight=70309.4 42929.4 27380 31601.6 11327.8 9520.3 23332.9 1807.47 20622.5 8268.76 1868.3
internal_count=232362 219665 12697 201217 18448 14522 174890 3926 8147 26327 1180
is_linear=0
shrinkage=0.05


Tree=30
num_leaves=12
num_cat=0
split_feature=0 6 0 6 7 0 3 5 7 5 6
split_gain=9486.38 630.967 279.84 173.4 144.659 163.219 124.816 104.482 101.423 97.0216 72.12
threshold=-2.7499999999999996 -2.3499999999999992 -3.3499999999999992 0.45000000000000007 4.5000000000000009 -0.24999999999999997 1.0000000180025095e-35 2.700000000000002 1.0000000180025095e-35 -0.40000000000000002 -3.0499999999999994
decision_type=2 2 2 2 2 2 2 2 2 2 2
left_child=2 4 8 6 5 -2 -3 -6 -1 -5 -4
right_child=1 3 10 9 7 -7 -8 -9 -10 -11 -12
leaf_value=0.045003467084674044 0.025810926110691149 0.0082660451732074619 0.047551263070313564 0.012846817871284914 0.027904401438950108 0.0080953213848371352 0.015680946056571762 0.050945850010603769 0.057366878422429317 -0.0013491374213266431 0.035798745060605562
leaf_weight=1825.6298227608204 7724.1184096038342 8238.6145701780915 4829.4514641314745 1828.8706040307879 1169.6746364235878 1563.3136330544949 18242.013034239411 849.1889636516571 18154.475121185184 3520.3685614839196 1788.8999906778336
leaf_count=1180 12358 50493 2928 17291 1768 3708 96139 614 6967 37294 1622
internal_value=0.0298006 0.0153195 0.0532855 0.0117154 0.0254658 0.0228289 0.013374 0.0375963 0.0562372 0.00350437 0.0443746
internal_weight=69734.6 43136.2 26598.5 31829.9 11306.3 9287.43 26480.6 2018.86 19980.1 5349.24 6618.35
internal_count=232362 219665 12697 201217 18448 16066 146632 2382 8147 54585 4550
is_linear=0
shrinkage=0.05


Tree=31
num_leaves=12
num_cat=0
split_feature=0 6 0 6 0 6 7 0 5 7 0
split_gain=9193.37 581.124 285.821 158.681 173.03 139.615 128.703 123.312 118.882 102.785 71.6828
threshold=-2.7499999999999996 -2.3499999999999992 -3.3499999999999992 1.4500000000000002 4.7500000000000009 -3.6499999999999999 1.5000000000000002 -0.14999999999999999 -2.8499999999999996 1.0000000180025095e-35 -6.7499999999999991
decision_type=2 2 2 2 2 2 2 2 2 2 2
left_child=2 5 9 4 -3 6 -2 -7 -5 10 -1
right_child=1 3 -4 8 -6 7 -8 -9 -10 -11 -12
leaf_value=-0.025633097340099772 0.01345355126995502 0.011786607798102033 0.043083655514141533 -0.047816829074336376 0.061857755109958772 0.022721271033310383 0.037074270053526197 0.0028884355355647279 0.0015424409567347227 0.056378090044563456 0.045228525905053094
leaf_weight=36.432956725358963 720.60387702286243 29344.998073995113 6479.486730158329 128.51348224282265 173.55871874839067 6788.4426104724407 2887.5925656110048 886.04466532170773 2402.7502887547016 17564.248251736164 1747.4044826477766
leaf_count=74 1347 174297 4550 1233 791 11606 3001 2494 24896 6967 1106
internal_value=0.0285602 0.0144863 0.0521728 0.0110508 0.012081 0.0242452 0.0323569 0.0204315 -0.000963553 0.0552167 0.0437813
internal_weight=69160.1 43332.5 25827.6 32049.8 29518.6 11282.7 3608.2 7674.49 2531.26 19348.1 1783.84
internal_count=232362 219665 12697 201217 175088 18448 4348 14100 26129 8147 1180
is_linear=0
shrinkage=0.05


Tree=32
num_leaves=12
num_cat=0
split_feature=2 7 1 7 7 1 5 5 5 2 5
split_gain=5323.9 1840.84 524.756 379.4 212.05 177.445 170.989 143.284 133.713 129.343 127.984
threshold=0.59500000000000008 1.0000000180025095e-35 -0.79999999999999993 1.5000000000000002 1.5000000000000002 -0.20000000000000009 0.60000000000000087 1.100000000000001 -0.19999999999999837 0.53500000000000014 4.7500000000000018
decision_type=2 2 2 2 2 2 2 2 2 2 2
left_child=1 2 9 5 -3 8 -7 -4 -2 -1 -5
right_child=3 4 7 10 -6 6 -8 -9 -10 -11 -12
leaf_value=0.035306930301755447 0.011533956653916939 0.037605241992466627 0.0018197183696363761 0.019849411311735385 0.048294840235250415 0.0010449824840955391 0.011641659404948077 0.023841369539182852 0.026646587128946075 0.016596568299321334 0.039791420287480825
leaf_weight=4025.3065094724298 7180.2973891794682 5818.3993262350559 3100.2574760913849 5211.9791592508554 22894.113133251667 8514.040977627039 6885.670031785965 969.67741990834475 1838.3802176862955 1198.7454561293125 951.43051897734404
leaf_count=5762 41764 7878 22381 13947 15843 65806 39004 5546 9434 3993 1004
internal_value=0.0273723 0.0398681 0.0205269 0.0118428 0.0461287 0.00904488 0.00578307 0.00706646 0.0146145 0.0310135 0.0229278
internal_weight=68588.3 38006.5 9293.99 30581.8 28712.5 24418.4 15399.7 4069.93 9018.68 5224.05 6163.41
internal_count=232362 61403 37682 170959 23721 156008 104810 27927 51198 9755 14951
is_linear=0
shrinkage=0.05


Tree=33
num_leaves=12
num_cat=0
split_feature=6 2 2 6 6 1 7 6 6 1 1
split_gain=8065.06 815.035 308.861 273.562 140.329 138.952 120.147 116.426 82.1493 81.7391 80.7573
threshold=-2.9499999999999997 0.60500000000000009 0.51500000000000012 -3.8499999999999992 -0.44999999999999996 -0.10000000000000005 4.5000000000000009 1.9500000000000002 1.6500000000000001 3.850000000000001 -0.30000000000000043
decision_type=2 2 2 2 2 2 2 2 2 2 2
left_child=1 3 7 -1 -4 -6 -3 8 -2 -5 -8
right_child=2 6 4 9 5 -7 10 -9 -10 -11 -12
leaf_value=0.052731287387163664 0.022407214785892061 0.017806580098222415 0.011732066544228988 0.042105992334718123 0.011152128573531331 -0.00014402600011897794 -0.050118622665248538 -0.055557261478141343 0.12794312370613262 -0.037368833569743125 0.041940578028847576
leaf_weight=17192.678451791406 5576.3696556314826 2583.1362387984991 22189.367011867464 8560.2469627857208 4867.7549720481038 6176.7735857889056 24.517091408371925 47.865067638456821 18.500430926680565 32.475465103983879 840.88289591670036
leaf_count=8189 12411 4427 99358 6272 40304 59719 78 547 143 90 824
internal_value=0.0261961 0.0460373 0.0112762 0.0490904 0.00943986 0.00483463 0.0232084 0.0220919 0.0227562 0.0418056 0.0393325
internal_weight=68110.6 29233.9 38876.6 25785.4 33233.9 11044.5 3448.54 5642.74 5594.87 8592.72 865.4
internal_count=232362 19880 212482 14551 199381 100023 5329 13101 12554 6362 902
is_linear=0
shrinkage=0.05


Tree=34
num_leaves=12
num_cat=0
split_feature=0 0 7 1 1 5 5 6 0 0 7
split_gain=8520.09 621.175 281.091 177.677 170.884 150.687 121.985 97.0884 87.713 83.1283 52.9591
threshold=-2.9499999999999997 -1.6499999999999997 1.5000000000000002 0.89999999999999991 -1.4499999999999995 2.3500000000000019 0.60000000000000087 -4.0499999999999989 -3.5499999999999994 -2.5499999999999994 3.5000000000000004
decision_type=2 2 2 2 2 2 2 2 2 2 2
left_child=4 3 6 9 7 -4 -3 -1 -6 -2 -5
right_child=1 2 5 10 8 -7 -8 -9 -10 -11 -12
leaf_value=0.04865375048161924 0.02698217787812511 0.0049159292904572298 0.013120155602578535 0.030268440171778162 0.055554760781931639 0.029683667830698819 0.012056032543376774 0.034943921918147595 0.047619305306016151 0.017339564866724302 0.04936921441863109
leaf_weight=3066.5782712697983 3210.4122268855572 18899.143633596599 3751.2843885719776 808.84986446797848 11690.068509429693 2165.9635619744658 8752.0071987137198 2230.7089250534773 4959.6310546845198 7357.3581196516752 658.19326014816761
leaf_count=1660 3672 134690 12642 874 4707 3129 50320 1831 2801 15618 418
internal_value=0.0251053 0.0127865 0.00929245 0.0225325 0.0507023 0.0191831 0.00717588 0.0428805 0.0531909 0.0202689 0.0388381
internal_weight=67550.2 45603.2 33568.4 12034.8 21947 5917.25 27651.2 5297.29 16649.7 10567.8 1467.04
internal_count=232362 221363 200781 20582 10999 15771 185010 3491 7508 19290 1292
is_linear=0
shrinkage=0.05


Tree=35
num_leaves=12
num_cat=0
split_feature=0 0 5 1 1 0 7 0 0 0 7
split_gain=8222.32 569.135 254.919 172.492 168.075 119.885 103.172 94.864 90.3389 79.985 50.8167
threshold=-2.9499999999999997 -1.6499999999999997 3.200000000000002 -1.4499999999999995 0.89999999999999991 2.7500000000000004 2.5000000000000004 -4.0499999999999989 -3.5499999999999994 -2.6499999999999999 3.5000000000000004
decision_type=2 2 2 2 2 2 2 2 2 2 2
left_child=3 4 5 7 9 -3 -4 -1 -5 -2 -6
right_child=1 2 6 8 10 -7 -8 -9 -10 -11 -12
leaf_value=0.047823184784836464 0.027072139318764066 0.0079379994285535584 0.015676147103462403 0.054759894205895089 0.029052387632074256 -0.0061610461656614315 0.033589680297152362 0.03417386484038961 0.046581782597748353 0.01685083343154679 0.047913003562141433
leaf_weight=2889.2988870739937 2511.8511111736298 28028.820733472705 2975.5501143634319 11277.2575712502 800.77995932102203 1593.4582457244396 1101.2677267789841 2275.5318861603737 4820.1590986549854 8041.1097165495157 644.63548909127712
leaf_count=1601 2740 173070 11012 4707 874 15408 1291 1890 2801 16550 418
internal_value=0.0240738 0.0121224 0.00879287 0.0497601 0.0214739 0.00717958 0.0205151 0.0418095 0.0523111 0.0192837 0.037464
internal_weight=66959.7 45697.5 33699.1 21262.2 11998.4 29622.3 4076.82 5164.83 16097.4 10553 1445.42
internal_count=232362 221363 200781 10999 20582 188478 12303 3491 7508 19290 1292
is_linear=0
shrinkage=0.05


Tree=36
num_leaves=12
num_cat=0
split_feature=0 0 7 1 1 5 5 0 0 0 7
split_gain=7927.67 521.501 244.547 174.113 158.874 132.732 104.385 93.6156 92.9715 76.064 48.7866
threshold=-2.9499999999999997 -1.6499999999999997 1.5000000000000002 -1.4499999999999995 0.89999999999999991 4.7500000000000018 0.60000000000000087 -4.0499999999999989 -3.5499999999999994 -2.6499999999999999 3.5000000000000004
decision_type=2 2 2 2 2 2 2 2 2 2 2
left_child=3 4 6 7 9 -4 -3 -1 -5 -2 -6
right_child=1 2 5 8 10 -7 -8 -9 -10 -11 -12
leaf_value=0.046844090557663393 0.025992809740348566 0.0042767439463554466 0.014082622488486407 0.053995667054338649 0.027884021038926916 0.033715596024368764 0.010846109414737041 0.033120791467330643 0.045570046561534593 0.015987304613224153 0.046514035836264553
leaf_weight=2804.3737507611513 2486.0165492594242 19051.689472354949 4875.665226995945 10875.241525173187 792.82310730218887 1045.4760488122702 8858.5202652141452 2231.6207266300917 4684.291584789753 8051.3904551565647 631.16810816526413
leaf_count=1601 2740 134690 14587 4707 874 1184 50320 1890 2801 16550 418
internal_value=0.0230799 0.0114925 0.00831982 0.0488436 0.0204662 0.0175492 0.00636182 0.0407628 0.0514591 0.0183478 0.0361416
internal_weight=66388.3 45792.7 33831.4 20595.5 11961.4 5921.14 27910.2 5035.99 15559.5 10537.4 1423.99
internal_count=232362 221363 200781 10999 20582 15771 185010 3491 7508 19290 1292
is_linear=0
shrinkage=0.05


Tree=37
num_leaves=12
num_cat=0
split_feature=0 0 7 7 6 3 0 6 0 0 2
split_gain=7633.5 477.482 224.782 173.716 146.576 121.428 112.358 109.014 72.8347 72.6541 85.6469
threshold=-2.9499999999999997 -1.6499999999999997 2.5000000000000004 1.0000000180025095e-35 -3.3499999999999992 1.0000000180025095e-35 -4.0499999999999989 -6.3499999999999988 -2.6499999999999999 -6.7499999999999991 0.50500000000000012
decision_type=2 2 2 2 2 2 2 2 2 2 2
left_child=3 4 5 9 -2 -3 -5 -4 -6 10 -1
right_child=1 2 7 6 8 -7 -8 -9 -10 -11 -12
leaf_value=-0.13141899714685917 0.032391809257594183 0.0020850468549139566 0.051523415021059366 0.053241972277367981 0.025197553000824702 0.0087536848586332698 0.045245839378523167 0.017315804111994595 0.014880834720001169 0.035904399405311253 0.031153531456266811
leaf_weight=14.217883750796316 1862.4342138916254 10367.497483730316 250.33433462679386 9659.1597938090563 2185.5161839723587 19984.941758155823 8058.3393404632807 3345.0600870028138 7875.905029669404 2196.8652085959911 18.83156880736351
leaf_count=57 1840 68689 154 4335 2438 123378 4857 8560 16304 1733 17
internal_value=0.0221281 0.0108995 0.00787618 0.0479498 0.0195069 0.00647587 0.0496051 0.0196976 0.0171218 0.0347974 -0.0387852
internal_weight=65819.1 45871.7 33947.8 19947.4 11923.9 30352.4 17717.5 3595.39 10061.4 2229.91 33.0495
internal_count=232362 221363 200781 10999 20582 192067 9192 8714 18742 1807 74
is_linear=0
shrinkage=0.05


Tree=38
num_leaves=12
num_cat=0
split_feature=6 2 2 6 5 6 7 6 5 5 7
split_gain=6519.39 754.159 266.061 235.55 156.463 105.065 117.885 101.997 85.7985 78.0258 74.9251
threshold=-3.0499999999999994 0.60500000000000009 0.51500000000000012 -4.0499999999999989 1.7000000000000011 -0.44999999999999996 6.5000000000000009 1.9500000000000002 -1.899999999999999 4.1633363423443376e-17 1.5000000000000002
decision_type=2 2 2 2 2 2 2 2 2 2 2
left_child=1 3 7 -1 -3 9 -7 -2 -5 -4 -6
right_child=2 4 5 8 10 6 -8 -9 -10 -11 -12
leaf_value=0.048933820124454616 0.019026073401169668 0.0042010681282247577 0.0060836353696604659 0.028327459259779975 0.0094618207039524043 0.0028817934096941572 0.094084297423645033 -0.055364964055725344 0.04078261124506391 0.011904718441151728 0.032504831350005613
leaf_weight=13051.548572644591 6038.7701516151428 1184.8054202347994 11286.069661647081 1729.450910076499 459.09822949767113 11274.639902740717 35.542696572840214 46.431682556867599 6895.8532722890377 11749.902090452611 1523.1337857246399
leaf_count=7104 13032 2540 50521 1713 826 99925 98 547 5032 49457 1567
internal_value=0.0212088 0.0413669 0.00882232 0.0446967 0.0185759 0.00711506 0.0031684 0.0184585 0.0382852 0.00905278 0.0271679
internal_weight=65275.2 24843.9 40431.4 21676.9 3167.04 34346.2 11310.2 6085.2 8625.3 23036 1982.23
internal_count=232362 18782 213580 13849 4933 200001 100023 13579 6745 99978 2393
is_linear=0
shrinkage=0.05


Tree=39
num_leaves=12
num_cat=0
split_feature=6 6 1 1 5 5 4 1 5 5 7
split_gain=6207.88 335.533 200.747 176.553 167.676 159.787 163.574 152.313 242.993 142.267 124.59
threshold=-3.0499999999999994 -4.0499999999999989 -0.10000000000000005 1.5499999999999994 4.1500000000000012 0.70000000000000062 1.0000000180025095e-35 0.4000000000000003 -1.0999999999999988 -2.299999999999998 1.0000000180025095e-35
decision_type=2 2 2 2 2 2 2 2 2 2 2
left_child=1 3 4 9 10 6 -4 8 -3 -1 -2
right_child=2 7 5 -5 -6 -7 -8 -9 -10 -11 -12
leaf_value=0.037736616748341022 0.0091218390110288216 0.02493216206561058 -0.0011595619788365404 0.032596659758052419 0.0558194031427851 0.0097821796460320562 0.016918277757901144 0.023084223698966053 0.043772035100737738 0.050780514539990863 0.018264033587827938
leaf_weight=2712.3053500056267 14065.005104489625 2660.4607372134924 10202.223237857223 2280.863464653492 216.25739944726229 9564.83195951581 1426.2280918806791 2643.4197487384081 4798.3100708574057 9116.9258088767529 5070.0631976351142
leaf_count=2336 75148 3102 69910 2145 544 46618 8070 3494 3068 4637 13290
internal_value=0.0203203 0.0403534 0.00835707 0.0453338 0.012039 0.00499517 0.00105768 0.0333971 0.0370521 0.0477897 0.0115442
internal_weight=64756.9 24212.3 40544.6 14110.1 19351.3 21193.3 11628.5 10102.2 7458.77 11829.2 19135.1
internal_count=232362 18782 213580 9118 88982 124598 77980 9664 6170 6973 88438
is_linear=0
shrinkage=0.05


end of trees

feature_importances:
zwfl=111
zwfl_min_3=95
z_velocity=75
z_acceleration=67
cumulative_low_visits=63
attendance_rate=21
missed_vaccine_streak=5
migrant_flag=3

parameters:
[boosting: gbdt]
[objective: binary]
[metric: binary_logloss]
[tree_learner: serial]
[device_type: cpu]
[data_sample_strategy: bagging]
[data: ]
[valid: ]
[num_iterations: 40]
[learning_rate: 0.05]
[num_leaves: 12]
[num_threads: 8]
[seed: 42]
[deterministic: 0]
[force_col_wise: 0]
[force_row_wise: 0]
[histogram_pool_size: -1]
[max_depth: 4]
[min_data_in_leaf: 20]
[min_sum_hessian_in_leaf: 0.001]
[bagging_fraction: 1]
[pos_bagging_fraction: 1]
[neg_bagging_fraction: 1]
[bagging_freq: 0]
[bagging_seed: 400]
[bagging_by_query: 0]
[feature_fraction: 0.7]
[feature_fraction_bynode: 1]
[feature_fraction_seed: 30056]
[extra_trees: 0]
[extra_seed: 12879]
[early_stopping_round: 0]
[early_stopping_min_delta: 0]
[first_metric_only: 0]
[max_delta_step: 0]
[lambda_l1: 0]
[lambda_l2: 0]
[linear_lambda: 0]
[min_gain_to_split: 0]
[drop_rate: 0.1]
[max_drop: 50]
[skip_drop: 0.5]
[xgboost_dart_mode: 0]
[uniform_drop: 0]
[drop_seed: 17869]
[top_rate: 0.2]
[other_rate: 0.1]
[min_data_per_group: 100]
[max_cat_threshold: 32]
[cat_l2: 10]
[cat_smooth: 10]
[max_cat_to_onehot: 4]
[top_k: 20]
[monotone_constraints: ]
[monotone_constraints_method: basic]
[monotone_penalty: 0]
[feature_contri: ]
[forcedsplits_filename: ]
[refit_decay_rate: 0.9]
[cegb_tradeoff: 1]
[cegb_penalty_split: 0]
[cegb_penalty_feature_lazy: ]
[cegb_penalty_feature_coupled: ]
[path_smooth: 0]
[interaction_constraints: ]
[verbosity: -1]
[saved_feature_importance_type: 0]
[use_quantized_grad: 0]
[num_grad_quant_bins: 4]
[quant_train_renew_leaf: 0]
[stochastic_rounding: 1]
[linear_tree: 0]
[max_bin: 255]
[max_bin_by_feature: ]
[min_data_in_bin: 3]
[bin_construct_sample_cnt: 200000]
[data_random_seed: 175]
[is_enable_sparse: 1]
[enable_bundle: 1]
[use_missing: 1]
[zero_as_missing: 0]
[feature_pre_filter: 1]
[pre_partition: 0]
[two_round: 0]
[header: 0]
[label_column: ]
[weight_column: ]
[group_column: ]
[ignore_column: ]
[categorical_feature: ]
[forcedbins_filename: ]
[precise_float_parser: 0]
[parser_config_file: ]
[objective_seed: 16083]
[num_class: 1]
[is_unbalance: 0]
[scale_pos_weight: 22.6645]
[sigmoid: 1]
[boost_from_average: 1]
[reg_sqrt: 0]
[alpha: 0.9]
[fair_c: 1]
[poisson_max_delta_step: 0.7]
[tweedie_variance_power: 1.5]
[lambdarank_truncation_level: 30]
[lambdarank_norm: 1]
[label_gain: ]
[lambdarank_position_bias_regularization: 0]
[eval_at: ]
[multi_error_top_k: 1]
[auc_mu_weights: ]
[num_machines: 1]
[local_listen_port: 12400]
[time_out: 120]
[machine_list_filename: ]
[machines: ]
[gpu_platform_id: -1]
[gpu_device_id: -1]
[gpu_use_dp: 0]
[num_gpu: 1]

end of parameters

pandas_categorical:[]
